digraph Tree {
node [shape=box] ;
0 [label="X[6] <= 0.0457\ngini = 0.8999\nsamples = 801\nvalue = [84, 82, 79, 82, 81, 76, 79, 79, 81, 78]"] ;
1 [label="X[3] <= 1128324.5\ngini = 0.431\nsamples = 86\nvalue = [0, 63, 3, 0, 1, 15, 1, 1, 1, 1]"] ;
0 -> 1 [labeldistance=2.5, labelangle=45, headlabel="True"] ;
2 [label="X[16] <= 45.1411\ngini = 0.1676\nsamples = 66\nvalue = [0, 60, 0, 0, 0, 5, 1, 0, 0, 0]"] ;
1 -> 2 ;
3 [label="X[17] <= 288.2457\ngini = 0.0322\nsamples = 61\nvalue = [0, 60, 0, 0, 0, 1, 0, 0, 0, 0]"] ;
2 -> 3 ;
4 [label="gini = 0.0\nsamples = 58\nvalue = [0, 58, 0, 0, 0, 0, 0, 0, 0, 0]"] ;
3 -> 4 ;
5 [label="gini = 0.4444\nsamples = 3\nvalue = [0, 2, 0, 0, 0, 1, 0, 0, 0, 0]"] ;
3 -> 5 ;
6 [label="gini = 0.32\nsamples = 5\nvalue = [0, 0, 0, 0, 0, 4, 1, 0, 0, 0]"] ;
2 -> 6 ;
7 [label="X[17] <= 178.847\ngini = 0.695\nsamples = 20\nvalue = [0, 3, 3, 0, 1, 10, 0, 1, 1, 1]"] ;
1 -> 7 ;
8 [label="gini = 0.18\nsamples = 10\nvalue = [0, 1, 0, 0, 0, 9, 0, 0, 0, 0]"] ;
7 -> 8 ;
9 [label="gini = 0.82\nsamples = 10\nvalue = [0, 2, 3, 0, 1, 1, 0, 1, 1, 1]"] ;
7 -> 9 ;
10 [label="X[1] <= 608615.375\ngini = 0.8933\nsamples = 715\nvalue = [84, 19, 76, 82, 80, 61, 78, 78, 80, 77]"] ;
0 -> 10 [labeldistance=2.5, labelangle=-45, headlabel="False"] ;
11 [label="X[16] <= 53.0584\ngini = 0.881\nsamples = 524\nvalue = [82, 19, 71, 63, 36, 59, 77, 15, 36, 66]"] ;
10 -> 11 ;
12 [label="X[2] <= 4351.7773\ngini = 0.8797\nsamples = 408\nvalue = [54, 19, 66, 60, 28, 54, 22, 15, 32, 58]"] ;
11 -> 12 ;
13 [label="X[19] <= 126.2951\ngini = 0.8306\nsamples = 190\nvalue = [38, 17, 46, 4, 5, 37, 0, 2, 23, 18]"] ;
12 -> 13 ;
14 [label="X[3] <= 383849.625\ngini = 0.6451\nsamples = 57\nvalue = [4, 12, 2, 1, 0, 31, 0, 1, 1, 5]"] ;
13 -> 14 ;
15 [label="gini = 0.0\nsamples = 8\nvalue = [0, 8, 0, 0, 0, 0, 0, 0, 0, 0]"] ;
14 -> 15 ;
16 [label="X[10] <= -148.3122\ngini = 0.5731\nsamples = 49\nvalue = [4, 4, 2, 1, 0, 31, 0, 1, 1, 5]"] ;
14 -> 16 ;
17 [label="X[14] <= 6.8434\ngini = 0.3037\nsamples = 35\nvalue = [3, 1, 1, 1, 0, 29, 0, 0, 0, 0]"] ;
16 -> 17 ;
18 [label="X[8] <= 28.7015\ngini = 0.1308\nsamples = 29\nvalue = [0, 1, 0, 1, 0, 27, 0, 0, 0, 0]"] ;
17 -> 18 ;
19 [label="X[9] <= 12.836\ngini = 0.0689\nsamples = 28\nvalue = [0, 0, 0, 1, 0, 27, 0, 0, 0, 0]"] ;
18 -> 19 ;
20 [label="gini = 0.0\nsamples = 1\nvalue = [0, 0, 0, 1, 0, 0, 0, 0, 0, 0]"] ;
19 -> 20 ;
21 [label="gini = 0.0\nsamples = 27\nvalue = [0, 0, 0, 0, 0, 27, 0, 0, 0, 0]"] ;
19 -> 21 ;
22 [label="gini = 0.0\nsamples = 1\nvalue = [0, 1, 0, 0, 0, 0, 0, 0, 0, 0]"] ;
18 -> 22 ;
23 [label="gini = 0.6111\nsamples = 6\nvalue = [3, 0, 1, 0, 0, 2, 0, 0, 0, 0]"] ;
17 -> 23 ;
24 [label="gini = 0.7857\nsamples = 14\nvalue = [1, 3, 1, 0, 0, 2, 0, 1, 1, 5]"] ;
16 -> 24 ;
25 [label="X[7] <= 0.0023\ngini = 0.7829\nsamples = 133\nvalue = [34, 5, 44, 3, 5, 6, 0, 1, 22, 13]"] ;
13 -> 25 ;
26 [label="X[15] <= 586.7633\ngini = 0.718\nsamples = 68\nvalue = [3, 4, 32, 2, 3, 6, 0, 1, 14, 3]"] ;
25 -> 26 ;
27 [label="X[8] <= 20.3394\ngini = 0.5634\nsamples = 48\nvalue = [2, 3, 31, 1, 1, 2, 0, 1, 4, 3]"] ;
26 -> 27 ;
28 [label="gini = 0.78\nsamples = 10\nvalue = [0, 3, 1, 1, 1, 1, 0, 0, 3, 0]"] ;
27 -> 28 ;
29 [label="X[10] <= -267.7374\ngini = 0.3657\nsamples = 38\nvalue = [2, 0, 30, 0, 0, 1, 0, 1, 1, 3]"] ;
27 -> 29 ;
30 [label="gini = 0.4444\nsamples = 3\nvalue = [2, 0, 0, 0, 0, 1, 0, 0, 0, 0]"] ;
29 -> 30 ;
31 [label="X[11] <= 5737.0747\ngini = 0.2563\nsamples = 35\nvalue = [0, 0, 30, 0, 0, 0, 0, 1, 1, 3]"] ;
29 -> 31 ;
32 [label="X[19] <= 143.2785\ngini = 0.169\nsamples = 33\nvalue = [0, 0, 30, 0, 0, 0, 0, 1, 0, 2]"] ;
31 -> 32 ;
33 [label="gini = 0.6111\nsamples = 6\nvalue = [0, 0, 3, 0, 0, 0, 0, 1, 0, 2]"] ;
32 -> 33 ;
34 [label="gini = 0.0\nsamples = 27\nvalue = [0, 0, 27, 0, 0, 0, 0, 0, 0, 0]"] ;
32 -> 34 ;
35 [label="gini = 0.5\nsamples = 2\nvalue = [0, 0, 0, 0, 0, 0, 0, 0, 1, 1]"] ;
31 -> 35 ;
36 [label="X[3] <= 1971885.875\ngini = 0.69\nsamples = 20\nvalue = [1, 1, 1, 1, 2, 4, 0, 0, 10, 0]"] ;
26 -> 36 ;
37 [label="gini = 0.6875\nsamples = 8\nvalue = [0, 1, 1, 1, 1, 4, 0, 0, 0, 0]"] ;
36 -> 37 ;
38 [label="gini = 0.2917\nsamples = 12\nvalue = [1, 0, 0, 0, 1, 0, 0, 0, 10, 0]"] ;
36 -> 38 ;
39 [label="X[14] <= 0.0533\ngini = 0.6982\nsamples = 65\nvalue = [31, 1, 12, 1, 2, 0, 0, 0, 8, 10]"] ;
25 -> 39 ;
40 [label="X[8] <= 22.6145\ngini = 0.7769\nsamples = 46\nvalue = [14, 1, 11, 1, 2, 0, 0, 0, 7, 10]"] ;
39 -> 40 ;
41 [label="X[10] <= -158.4454\ngini = 0.6529\nsamples = 22\nvalue = [11, 1, 0, 0, 1, 0, 0, 0, 3, 6]"] ;
40 -> 41 ;
42 [label="gini = 0.4298\nsamples = 11\nvalue = [8, 1, 0, 0, 0, 0, 0, 0, 2, 0]"] ;
41 -> 42 ;
43 [label="gini = 0.6116\nsamples = 11\nvalue = [3, 0, 0, 0, 1, 0, 0, 0, 1, 6]"] ;
41 -> 43 ;
44 [label="X[3] <= 1968571.5\ngini = 0.7153\nsamples = 24\nvalue = [3, 0, 11, 1, 1, 0, 0, 0, 4, 4]"] ;
40 -> 44 ;
45 [label="gini = 0.5802\nsamples = 18\nvalue = [2, 0, 11, 1, 1, 0, 0, 0, 0, 3]"] ;
44 -> 45 ;
46 [label="gini = 0.5\nsamples = 6\nvalue = [1, 0, 0, 0, 0, 0, 0, 0, 4, 1]"] ;
44 -> 46 ;
47 [label="gini = 0.1939\nsamples = 19\nvalue = [17, 0, 1, 0, 0, 0, 0, 0, 1, 0]"] ;
39 -> 47 ;
48 [label="X[16] <= 43.1898\ngini = 0.8538\nsamples = 218\nvalue = [16, 2, 20, 56, 23, 17, 22, 13, 9, 40]"] ;
12 -> 48 ;
49 [label="X[17] <= 126.129\ngini = 0.8196\nsamples = 137\nvalue = [4, 2, 16, 46, 11, 17, 2, 13, 7, 19]"] ;
48 -> 49 ;
50 [label="X[14] <= -4.7589\ngini = 0.7655\nsamples = 37\nvalue = [2, 2, 5, 3, 0, 14, 1, 1, 0, 9]"] ;
49 -> 50 ;
51 [label="gini = 0.7266\nsamples = 17\nvalue = [2, 2, 1, 2, 0, 0, 1, 1, 0, 8]"] ;
50 -> 51 ;
52 [label="X[10] <= -21.9238\ngini = 0.465\nsamples = 20\nvalue = [0, 0, 4, 1, 0, 14, 0, 0, 0, 1]"] ;
50 -> 52 ;
53 [label="gini = 0.1244\nsamples = 15\nvalue = [0, 0, 0, 1, 0, 14, 0, 0, 0, 0]"] ;
52 -> 53 ;
54 [label="gini = 0.32\nsamples = 5\nvalue = [0, 0, 4, 0, 0, 0, 0, 0, 0, 1]"] ;
52 -> 54 ;
55 [label="X[18] <= -8.0309\ngini = 0.7602\nsamples = 100\nvalue = [2, 0, 11, 43, 11, 3, 1, 12, 7, 10]"] ;
49 -> 55 ;
56 [label="X[6] <= 0.1248\ngini = 0.4775\nsamples = 33\nvalue = [1, 0, 1, 23, 6, 0, 0, 1, 0, 1]"] ;
55 -> 56 ;
57 [label="gini = 0.2037\nsamples = 18\nvalue = [0, 0, 0, 16, 0, 0, 0, 1, 0, 1]"] ;
56 -> 57 ;
58 [label="gini = 0.6133\nsamples = 15\nvalue = [1, 0, 1, 7, 6, 0, 0, 0, 0, 0]"] ;
56 -> 58 ;
59 [label="X[8] <= 26.0414\ngini = 0.8247\nsamples = 67\nvalue = [1, 0, 10, 20, 5, 3, 1, 11, 7, 9]"] ;
55 -> 59 ;
60 [label="X[18] <= 9.2128\ngini = 0.8521\nsamples = 52\nvalue = [1, 0, 9, 8, 5, 3, 1, 11, 7, 7]"] ;
59 -> 60 ;
61 [label="X[16] <= 28.315\ngini = 0.8435\nsamples = 41\nvalue = [1, 0, 2, 7, 5, 3, 1, 10, 7, 5]"] ;
60 -> 61 ;
62 [label="X[4] <= 0.1321\ngini = 0.712\nsamples = 21\nvalue = [0, 0, 1, 2, 3, 0, 0, 10, 2, 3]"] ;
61 -> 62 ;
63 [label="gini = 0.3704\nsamples = 9\nvalue = [0, 0, 1, 1, 0, 0, 0, 7, 0, 0]"] ;
62 -> 63 ;
64 [label="gini = 0.7778\nsamples = 12\nvalue = [0, 0, 0, 1, 3, 0, 0, 3, 2, 3]"] ;
62 -> 64 ;
65 [label="X[10] <= -119.2083\ngini = 0.825\nsamples = 20\nvalue = [1, 0, 1, 5, 2, 3, 1, 0, 5, 2]"] ;
61 -> 65 ;
66 [label="gini = 0.7\nsamples = 10\nvalue = [0, 0, 1, 0, 2, 3, 0, 0, 4, 0]"] ;
65 -> 66 ;
67 [label="gini = 0.68\nsamples = 10\nvalue = [1, 0, 0, 5, 0, 0, 1, 0, 1, 2]"] ;
65 -> 67 ;
68 [label="gini = 0.5455\nsamples = 11\nvalue = [0, 0, 7, 1, 0, 0, 0, 1, 0, 2]"] ;
60 -> 68 ;
69 [label="gini = 0.3378\nsamples = 15\nvalue = [0, 0, 1, 12, 0, 0, 0, 0, 0, 2]"] ;
59 -> 69 ;
70 [label="X[18] <= -29.423\ngini = 0.8096\nsamples = 81\nvalue = [12, 0, 4, 10, 12, 0, 20, 0, 2, 21]"] ;
48 -> 70 ;
71 [label="gini = 0.0\nsamples = 7\nvalue = [7, 0, 0, 0, 0, 0, 0, 0, 0, 0]"] ;
70 -> 71 ;
72 [label="X[4] <= 0.1515\ngini = 0.7936\nsamples = 74\nvalue = [5, 0, 4, 10, 12, 0, 20, 0, 2, 21]"] ;
70 -> 72 ;
73 [label="X[18] <= -10.3087\ngini = 0.8055\nsamples = 59\nvalue = [5, 0, 4, 10, 12, 0, 8, 0, 2, 18]"] ;
72 -> 73 ;
74 [label="X[6] <= 0.1851\ngini = 0.7105\nsamples = 38\nvalue = [4, 0, 1, 2, 6, 0, 6, 0, 1, 18]"] ;
73 -> 74 ;
75 [label="X[3] <= 755197.125\ngini = 0.5267\nsamples = 27\nvalue = [2, 0, 0, 2, 2, 0, 3, 0, 0, 18]"] ;
74 -> 75 ;
76 [label="gini = 0.7\nsamples = 10\nvalue = [2, 0, 0, 0, 1, 0, 3, 0, 0, 4]"] ;
75 -> 76 ;
77 [label="gini = 0.3045\nsamples = 17\nvalue = [0, 0, 0, 2, 1, 0, 0, 0, 0, 14]"] ;
75 -> 77 ;
78 [label="gini = 0.7438\nsamples = 11\nvalue = [2, 0, 1, 0, 4, 0, 3, 0, 1, 0]"] ;
74 -> 78 ;
79 [label="X[19] <= 140.3999\ngini = 0.7392\nsamples = 21\nvalue = [1, 0, 3, 8, 6, 0, 2, 0, 1, 0]"] ;
73 -> 79 ;
80 [label="gini = 0.58\nsamples = 10\nvalue = [1, 0, 0, 6, 0, 0, 2, 0, 1, 0]"] ;
79 -> 80 ;
81 [label="gini = 0.595\nsamples = 11\nvalue = [0, 0, 3, 2, 6, 0, 0, 0, 0, 0]"] ;
79 -> 81 ;
82 [label="gini = 0.32\nsamples = 15\nvalue = [0, 0, 0, 0, 0, 0, 12, 0, 0, 3]"] ;
72 -> 82 ;
83 [label="X[4] <= 0.1163\ngini = 0.7018\nsamples = 116\nvalue = [28, 0, 5, 3, 8, 5, 55, 0, 4, 8]"] ;
11 -> 83 ;
84 [label="X[5] <= 0.0034\ngini = 0.7369\nsamples = 53\nvalue = [24, 0, 4, 0, 4, 5, 9, 0, 3, 4]"] ;
83 -> 84 ;
85 [label="X[6] <= 0.0855\ngini = 0.6892\nsamples = 48\nvalue = [24, 0, 4, 0, 1, 5, 9, 0, 1, 4]"] ;
84 -> 85 ;
86 [label="gini = 0.48\nsamples = 5\nvalue = [0, 0, 0, 0, 0, 3, 0, 0, 0, 2]"] ;
85 -> 86 ;
87 [label="X[18] <= -12.8117\ngini = 0.6306\nsamples = 43\nvalue = [24, 0, 4, 0, 1, 2, 9, 0, 1, 2]"] ;
85 -> 87 ;
88 [label="gini = 0.64\nsamples = 5\nvalue = [0, 0, 0, 0, 0, 2, 1, 0, 0, 2]"] ;
87 -> 88 ;
89 [label="X[1] <= 269069.75\ngini = 0.5443\nsamples = 38\nvalue = [24, 0, 4, 0, 1, 0, 8, 0, 1, 0]"] ;
87 -> 89 ;
90 [label="X[5] <= 0.0008\ngini = 0.2449\nsamples = 21\nvalue = [18, 0, 0, 0, 0, 0, 3, 0, 0, 0]"] ;
89 -> 90 ;
91 [label="gini = 0.375\nsamples = 4\nvalue = [1, 0, 0, 0, 0, 0, 3, 0, 0, 0]"] ;
90 -> 91 ;
92 [label="gini = 0.0\nsamples = 17\nvalue = [17, 0, 0, 0, 0, 0, 0, 0, 0, 0]"] ;
90 -> 92 ;
93 [label="gini = 0.7266\nsamples = 17\nvalue = [6, 0, 4, 0, 1, 0, 5, 0, 1, 0]"] ;
89 -> 93 ;
94 [label="gini = 0.48\nsamples = 5\nvalue = [0, 0, 0, 0, 3, 0, 0, 0, 2, 0]"] ;
84 -> 94 ;
95 [label="X[19] <= 187.8518\ngini = 0.452\nsamples = 63\nvalue = [4, 0, 1, 3, 4, 0, 46, 0, 1, 4]"] ;
83 -> 95 ;
96 [label="X[13] <= 736.6874\ngini = 0.3615\nsamples = 58\nvalue = [3, 0, 1, 2, 1, 0, 46, 0, 1, 4]"] ;
95 -> 96 ;
97 [label="X[18] <= -27.2694\ngini = 0.2942\nsamples = 55\nvalue = [3, 0, 1, 2, 1, 0, 46, 0, 0, 2]"] ;
96 -> 97 ;
98 [label="gini = 0.0\nsamples = 2\nvalue = [2, 0, 0, 0, 0, 0, 0, 0, 0, 0]"] ;
97 -> 98 ;
99 [label="X[8] <= 28.6528\ngini = 0.2428\nsamples = 53\nvalue = [1, 0, 1, 2, 1, 0, 46, 0, 0, 2]"] ;
97 -> 99 ;
100 [label="X[7] <= 0.0016\ngini = 0.2145\nsamples = 52\nvalue = [1, 0, 1, 2, 1, 0, 46, 0, 0, 1]"] ;
99 -> 100 ;
101 [label="X[0] <= 2336.999\ngini = 0.0918\nsamples = 42\nvalue = [0, 0, 1, 0, 0, 0, 40, 0, 0, 1]"] ;
100 -> 101 ;
102 [label="gini = 0.56\nsamples = 5\nvalue = [0, 0, 1, 0, 0, 0, 3, 0, 0, 1]"] ;
101 -> 102 ;
103 [label="gini = 0.0\nsamples = 37\nvalue = [0, 0, 0, 0, 0, 0, 37, 0, 0, 0]"] ;
101 -> 103 ;
104 [label="gini = 0.58\nsamples = 10\nvalue = [1, 0, 0, 2, 1, 0, 6, 0, 0, 0]"] ;
100 -> 104 ;
105 [label="gini = 0.0\nsamples = 1\nvalue = [0, 0, 0, 0, 0, 0, 0, 0, 0, 1]"] ;
99 -> 105 ;
106 [label="gini = 0.4444\nsamples = 3\nvalue = [0, 0, 0, 0, 0, 0, 0, 0, 1, 2]"] ;
96 -> 106 ;
107 [label="gini = 0.56\nsamples = 5\nvalue = [1, 0, 0, 1, 3, 0, 0, 0, 0, 0]"] ;
95 -> 107 ;
108 [label="X[10] <= -59.8017\ngini = 0.7709\nsamples = 191\nvalue = [2, 0, 5, 19, 44, 2, 1, 63, 44, 11]"] ;
10 -> 108 ;
109 [label="X[7] <= 0.0052\ngini = 0.7799\nsamples = 145\nvalue = [2, 0, 5, 14, 42, 2, 1, 24, 44, 11]"] ;
108 -> 109 ;
110 [label="X[17] <= 271.3043\ngini = 0.765\nsamples = 86\nvalue = [2, 0, 5, 12, 10, 2, 1, 8, 36, 10]"] ;
109 -> 110 ;
111 [label="X[16] <= 30.2552\ngini = 0.8573\nsamples = 38\nvalue = [2, 0, 4, 7, 3, 2, 1, 5, 7, 7]"] ;
110 -> 111 ;
112 [label="X[10] <= -117.2764\ngini = 0.8192\nsamples = 25\nvalue = [1, 0, 3, 7, 3, 2, 0, 4, 0, 5]"] ;
111 -> 112 ;
113 [label="gini = 0.7778\nsamples = 12\nvalue = [1, 0, 3, 0, 0, 2, 0, 3, 0, 3]"] ;
112 -> 113 ;
114 [label="gini = 0.6272\nsamples = 13\nvalue = [0, 0, 0, 7, 3, 0, 0, 1, 0, 2]"] ;
112 -> 114 ;
115 [label="gini = 0.6627\nsamples = 13\nvalue = [1, 0, 1, 0, 0, 0, 1, 1, 7, 2]"] ;
111 -> 115 ;
116 [label="X[14] <= 30.2171\ngini = 0.5946\nsamples = 48\nvalue = [0, 0, 1, 5, 7, 0, 0, 3, 29, 3]"] ;
110 -> 116 ;
117 [label="X[1] <= 622132.375\ngini = 0.531\nsamples = 44\nvalue = [0, 0, 1, 5, 6, 0, 0, 2, 29, 1]"] ;
116 -> 117 ;
118 [label="gini = 0.0\nsamples = 2\nvalue = [0, 0, 0, 2, 0, 0, 0, 0, 0, 0]"] ;
117 -> 118 ;
119 [label="X[12] <= 78.9472\ngini = 0.4943\nsamples = 42\nvalue = [0, 0, 1, 3, 6, 0, 0, 2, 29, 1]"] ;
117 -> 119 ;
120 [label="gini = 0.7031\nsamples = 16\nvalue = [0, 0, 1, 3, 4, 0, 0, 1, 7, 0]"] ;
119 -> 120 ;
121 [label="X[16] <= 43.2992\ngini = 0.2751\nsamples = 26\nvalue = [0, 0, 0, 0, 2, 0, 0, 1, 22, 1]"] ;
119 -> 121 ;
122 [label="X[13] <= 1814.1343\ngini = 0.0907\nsamples = 21\nvalue = [0, 0, 0, 0, 0, 0, 0, 1, 20, 0]"] ;
121 -> 122 ;
123 [label="gini = 0.0\nsamples = 20\nvalue = [0, 0, 0, 0, 0, 0, 0, 0, 20, 0]"] ;
122 -> 123 ;
124 [label="gini = 0.0\nsamples = 1\nvalue = [0, 0, 0, 0, 0, 0, 0, 1, 0, 0]"] ;
122 -> 124 ;
125 [label="gini = 0.64\nsamples = 5\nvalue = [0, 0, 0, 0, 2, 0, 0, 0, 2, 1]"] ;
121 -> 125 ;
126 [label="gini = 0.625\nsamples = 4\nvalue = [0, 0, 0, 0, 1, 0, 0, 1, 0, 2]"] ;
116 -> 126 ;
127 [label="X[2] <= 6369.3755\ngini = 0.6125\nsamples = 59\nvalue = [0, 0, 0, 2, 32, 0, 0, 16, 8, 1]"] ;
109 -> 127 ;
128 [label="X[17] <= 319.8184\ngini = 0.4234\nsamples = 39\nvalue = [0, 0, 0, 1, 29, 0, 0, 3, 5, 1]"] ;
127 -> 128 ;
129 [label="gini = 0.6864\nsamples = 13\nvalue = [0, 0, 0, 1, 5, 0, 0, 1, 5, 1]"] ;
128 -> 129 ;
130 [label="X[16] <= -4.4705\ngini = 0.142\nsamples = 26\nvalue = [0, 0, 0, 0, 24, 0, 0, 2, 0, 0]"] ;
128 -> 130 ;
131 [label="gini = 0.0\nsamples = 1\nvalue = [0, 0, 0, 0, 0, 0, 0, 1, 0, 0]"] ;
130 -> 131 ;
132 [label="X[11] <= 2921.0132\ngini = 0.0768\nsamples = 25\nvalue = [0, 0, 0, 0, 24, 0, 0, 1, 0, 0]"] ;
130 -> 132 ;
133 [label="gini = 0.0\nsamples = 1\nvalue = [0, 0, 0, 0, 0, 0, 0, 1, 0, 0]"] ;
132 -> 133 ;
134 [label="gini = 0.0\nsamples = 24\nvalue = [0, 0, 0, 0, 24, 0, 0, 0, 0, 0]"] ;
132 -> 134 ;
135 [label="X[19] <= 254.154\ngini = 0.53\nsamples = 20\nvalue = [0, 0, 0, 1, 3, 0, 0, 13, 3, 0]"] ;
127 -> 135 ;
136 [label="gini = 0.3378\nsamples = 15\nvalue = [0, 0, 0, 1, 0, 0, 0, 12, 2, 0]"] ;
135 -> 136 ;
137 [label="gini = 0.56\nsamples = 5\nvalue = [0, 0, 0, 0, 3, 0, 0, 1, 1, 0]"] ;
135 -> 137 ;
138 [label="X[8] <= 26.3605\ngini = 0.2675\nsamples = 46\nvalue = [0, 0, 0, 5, 2, 0, 0, 39, 0, 0]"] ;
108 -> 138 ;
139 [label="X[16] <= 28.9923\ngini = 0.094\nsamples = 41\nvalue = [0, 0, 0, 1, 1, 0, 0, 39, 0, 0]"] ;
138 -> 139 ;
140 [label="gini = 0.0\nsamples = 39\nvalue = [0, 0, 0, 0, 0, 0, 0, 39, 0, 0]"] ;
139 -> 140 ;
141 [label="gini = 0.5\nsamples = 2\nvalue = [0, 0, 0, 1, 1, 0, 0, 0, 0, 0]"] ;
139 -> 141 ;
142 [label="gini = 0.32\nsamples = 5\nvalue = [0, 0, 0, 4, 1, 0, 0, 0, 0, 0]"] ;
138 -> 142 ;
}